<?xml version="1.0"?>
<opencv_storage>
<stage5>
  <maxWeakCount>15</maxWeakCount>
  <stageThreshold>-1.3342558145523071e+00</stageThreshold>
  <weakClassifiers>
    <_>
      <internalNodes>
        0 -1 161567 1.6538057476282120e-02</internalNodes>
      <leafValues>
        -5.9385663270950317e-01 5.9756100177764893e-01</leafValues></_>
    <_>
      <internalNodes>
        0 -1 96725 2.8105711564421654e-02</internalNodes>
      <leafValues>
        -6.2178099155426025e-01 4.6710714697837830e-01</leafValues></_>
    <_>
      <internalNodes>
        0 -1 32195 -1.5357325319200754e-03</internalNodes>
      <leafValues>
        4.0685617923736572e-01 -4.7156396508216858e-01</leafValues></_>
    <_>
      <internalNodes>
        0 -1 23404 -1.5854072570800781e-01</internalNodes>
      <leafValues>
        -6.3941198587417603e-01 3.0136057734489441e-01</leafValues></_>
    <_>
      <internalNodes>
        0 -1 83178 -4.0167525410652161e-02</internalNodes>
      <leafValues>
        -9.1919642686843872e-01 2.0962582528591156e-01</leafValues></_>
    <_>
      <internalNodes>
        0 -1 109971 6.9941980764269829e-03</internalNodes>
      <leafValues>
        -2.4192894995212555e-01 9.3310391902923584e-01</leafValues></_>
    <_>
      <internalNodes>
        0 -1 146094 6.6053524613380432e-02</internalNodes>
      <leafValues>
        -3.5373789072036743e-01 5.6550395488739014e-01</leafValues></_>
    <_>
      <internalNodes>
        0 -1 148480 -2.6027162093669176e-03</internalNodes>
      <leafValues>
        5.8142209053039551e-01 -3.2773187756538391e-01</leafValues></_>
    <_>
      <internalNodes>
        0 -1 76292 3.9082365110516548e-03</internalNodes>
      <leafValues>
        -1.8661271035671234e-01 9.5915108919143677e-01</leafValues></_>
    <_>
      <internalNodes>
        0 -1 4081 -6.2964466633275151e-04</internalNodes>
      <leafValues>
        -7.4320656061172485e-01 3.1029281020164490e-01</leafValues></_>
    <_>
      <internalNodes>
        0 -1 120535 3.5975438077002764e-03</internalNodes>
      <leafValues>
        -3.4927636384963989e-01 7.5696116685867310e-01</leafValues></_>
    <_>
      <internalNodes>
        0 -1 72945 -7.3857815004885197e-03</internalNodes>
      <leafValues>
        4.3084922432899475e-01 -5.3620690107345581e-01</leafValues></_>
    <_>
      <internalNodes>
        0 -1 66715 -4.2748828418552876e-03</internalNodes>
      <leafValues>
        8.8728708028793335e-01 -2.5509127974510193e-01</leafValues></_>
    <_>
      <internalNodes>
        0 -1 27519 7.6793268322944641e-02</internalNodes>
      <leafValues>
        2.7607148885726929e-01 -7.5417309999465942e-01</leafValues></_>
    <_>
      <internalNodes>
        0 -1 72472 7.5467582792043686e-03</internalNodes>
      <leafValues>
        -3.7050268054008484e-01 5.8010578155517578e-01</leafValues></_></weakClassifiers></stage5>
</opencv_storage>
