<?xml version="1.0"?>
<opencv_storage>
<stage9>
  <maxWeakCount>13</maxWeakCount>
  <stageThreshold>-1.0564413070678711e+00</stageThreshold>
  <weakClassifiers>
    <_>
      <internalNodes>
        0 -1 89809 2.1991625428199768e-02</internalNodes>
      <leafValues>
        -5.4949337244033813e-01 9.4470047950744629e-01</leafValues></_>
    <_>
      <internalNodes>
        0 -1 153288 2.9682572931051254e-02</internalNodes>
      <leafValues>
        -5.6465530395507813e-01 5.2285909652709961e-01</leafValues></_>
    <_>
      <internalNodes>
        0 -1 49461 -4.1978454100899398e-04</internalNodes>
      <leafValues>
        -6.3840717077255249e-01 3.6488106846809387e-01</leafValues></_>
    <_>
      <internalNodes>
        0 -1 76300 -3.5342494957149029e-03</internalNodes>
      <leafValues>
        7.2699540853500366e-01 -3.3222275972366333e-01</leafValues></_>
    <_>
      <internalNodes>
        0 -1 34393 -8.5478182882070541e-04</internalNodes>
      <leafValues>
        7.2797000408172607e-01 -2.8392487764358521e-01</leafValues></_>
    <_>
      <internalNodes>
        0 -1 50159 -4.1014529764652252e-02</internalNodes>
      <leafValues>
        -6.9043707847595215e-01 4.1847011446952820e-01</leafValues></_>
    <_>
      <internalNodes>
        0 -1 152565 -9.8872836679220200e-04</internalNodes>
      <leafValues>
        -6.0850054025650024e-01 3.3891010284423828e-01</leafValues></_>
    <_>
      <internalNodes>
        0 -1 43884 1.8651353195309639e-02</internalNodes>
      <leafValues>
        3.6350360512733459e-01 -7.9778581857681274e-01</leafValues></_>
    <_>
      <internalNodes>
        0 -1 98537 -4.2237690649926662e-03</internalNodes>
      <leafValues>
        7.8506052494049072e-01 -3.2821339368820190e-01</leafValues></_>
    <_>
      <internalNodes>
        0 -1 8637 1.1068006046116352e-02</internalNodes>
      <leafValues>
        3.7009197473526001e-01 -7.0230752229690552e-01</leafValues></_>
    <_>
      <internalNodes>
        0 -1 110475 5.6711219251155853e-02</internalNodes>
      <leafValues>
        -4.6532973647117615e-01 5.2406543493270874e-01</leafValues></_>
    <_>
      <internalNodes>
        0 -1 55615 -4.3457448482513428e-02</internalNodes>
      <leafValues>
        3.7505343556404114e-01 -6.8351155519485474e-01</leafValues></_>
    <_>
      <internalNodes>
        0 -1 37928 -1.2355112284421921e-01</internalNodes>
      <leafValues>
        -9.2190128564834595e-01 2.9986280202865601e-01</leafValues></_></weakClassifiers></stage9>
</opencv_storage>
