<?xml version="1.0"?>
<opencv_storage>
<stage1>
  <maxWeakCount>8</maxWeakCount>
  <stageThreshold>-1.1635773181915283e+00</stageThreshold>
  <weakClassifiers>
    <_>
      <internalNodes>
        0 -1 567 -1.7775905132293701e-01</internalNodes>
      <leafValues>
        -9.7035348415374756e-01 5.6340289115905762e-01</leafValues></_>
    <_>
      <internalNodes>
        0 -1 49269 1.3758333399891853e-02</internalNodes>
      <leafValues>
        -8.7162297964096069e-01 5.9093928337097168e-01</leafValues></_>
    <_>
      <internalNodes>
        0 -1 13373 -1.6126558184623718e-02</internalNodes>
      <leafValues>
        -1. 2.4868306517601013e-01</leafValues></_>
    <_>
      <internalNodes>
        0 -1 5032 -5.0875935703516006e-03</internalNodes>
      <leafValues>
        6.5914356708526611e-01 -6.5846443176269531e-01</leafValues></_>
    <_>
      <internalNodes>
        0 -1 10855 -3.1213597394526005e-03</internalNodes>
      <leafValues>
        5.6860154867172241e-01 -6.8002438545227051e-01</leafValues></_>
    <_>
      <internalNodes>
        0 -1 5116 -8.0838903784751892e-02</internalNodes>
      <leafValues>
        -9.8914027214050293e-01 2.3886124789714813e-01</leafValues></_>
    <_>
      <internalNodes>
        0 -1 79338 -1.3806003844365478e-03</internalNodes>
      <leafValues>
        7.9178297519683838e-01 -4.5022228360176086e-01</leafValues></_>
    <_>
      <internalNodes>
        0 -1 2431 9.4870594330132008e-04</internalNodes>
      <leafValues>
        -5.1106524467468262e-01 5.8802849054336548e-01</leafValues></_></weakClassifiers></stage1>
</opencv_storage>
