<?xml version="1.0"?>
<opencv_storage>
<stage3>
  <maxWeakCount>20</maxWeakCount>
  <stageThreshold>-1.0429021120071411e+00</stageThreshold>
  <weakClassifiers>
    <_>
      <internalNodes>
        0 -1 154043 2.7542807161808014e-02</internalNodes>
      <leafValues>
        -7.7729731798171997e-01 3.8086956739425659e-01</leafValues></_>
    <_>
      <internalNodes>
        0 -1 5876 -7.7420799061655998e-03</internalNodes>
      <leafValues>
        5.4252326488494873e-01 -5.7204425334930420e-01</leafValues></_>
    <_>
      <internalNodes>
        0 -1 99190 -1.3655029237270355e-02</internalNodes>
      <leafValues>
        3.1974494457244873e-01 -6.1530584096908569e-01</leafValues></_>
    <_>
      <internalNodes>
        0 -1 161750 3.6963820457458496e-03</internalNodes>
      <leafValues>
        -3.1613340973854065e-01 5.3714990615844727e-01</leafValues></_>
    <_>
      <internalNodes>
        0 -1 283 -1.4810275286436081e-02</internalNodes>
      <leafValues>
        3.8158217072486877e-01 -3.6547112464904785e-01</leafValues></_>
    <_>
      <internalNodes>
        0 -1 104398 -1.9130359869450331e-03</internalNodes>
      <leafValues>
        6.8540811538696289e-01 -2.4246877431869507e-01</leafValues></_>
    <_>
      <internalNodes>
        0 -1 1110 -1.3046170352026820e-03</internalNodes>
      <leafValues>
        -8.1018185615539551e-01 2.1780909597873688e-01</leafValues></_>
    <_>
      <internalNodes>
        0 -1 121665 -6.6412920132279396e-03</internalNodes>
      <leafValues>
        5.3591465950012207e-01 -2.7979040145874023e-01</leafValues></_>
    <_>
      <internalNodes>
        0 -1 162289 -1.2460438534617424e-02</internalNodes>
      <leafValues>
        -9.1263496875762939e-01 1.6145604848861694e-01</leafValues></_>
    <_>
      <internalNodes>
        0 -1 59497 2.8923058416694403e-03</internalNodes>
      <leafValues>
        -2.8798273205757141e-01 5.7072138786315918e-01</leafValues></_>
    <_>
      <internalNodes>
        0 -1 155232 4.3721441761590540e-04</internalNodes>
      <leafValues>
        1.8784141540527344e-01 -6.7629313468933105e-01</leafValues></_>
    <_>
      <internalNodes>
        0 -1 125052 -1.5515203122049570e-03</internalNodes>
      <leafValues>
        5.7199096679687500e-01 -2.4189217388629913e-01</leafValues></_>
    <_>
      <internalNodes>
        0 -1 6170 -3.0383128672838211e-02</internalNodes>
      <leafValues>
        3.7071695923805237e-01 -4.0088963508605957e-01</leafValues></_>
    <_>
      <internalNodes>
        0 -1 104950 1.1523590423166752e-02</internalNodes>
      <leafValues>
        1.8167448043823242e-01 -8.0942815542221069e-01</leafValues></_>
    <_>
      <internalNodes>
        0 -1 15371 9.6591270994395018e-04</internalNodes>
      <leafValues>
        1.9251920282840729e-01 -5.8146262168884277e-01</leafValues></_>
    <_>
      <internalNodes>
        0 -1 136792 -6.5379549050703645e-04</internalNodes>
      <leafValues>
        4.9646657705307007e-01 -2.8898903727531433e-01</leafValues></_>
    <_>
      <internalNodes>
        0 -1 101302 2.2687435150146484e-02</internalNodes>
      <leafValues>
        1.3613781332969666e-01 -9.2947793006896973e-01</leafValues></_>
    <_>
      <internalNodes>
        0 -1 44150 -6.4275115728378296e-02</internalNodes>
      <leafValues>
        -7.3506861925125122e-01 1.3219894468784332e-01</leafValues></_>
    <_>
      <internalNodes>
        0 -1 25804 -1.8292317690793425e-04</internalNodes>
      <leafValues>
        -6.2493956089019775e-01 1.9359220564365387e-01</leafValues></_>
    <_>
      <internalNodes>
        0 -1 218 -2.0238071680068970e-02</internalNodes>
      <leafValues>
        3.5569033026695251e-01 -3.6383271217346191e-01</leafValues></_></weakClassifiers></stage3>
</opencv_storage>
